{
  "encoder_model_name": "sentence-transformers/all-MiniLM-L6-v2",
  "embedding_dimension": 384,
  "normalize_embeddings": true,
  "classifier_type": "sklearn.linear_model.LogisticRegression",
  "solver": "liblinear",
  "c_value": 10.0,
  "classes": [
    "ALLOW",
    "BLOCK"
  ],
  "class_mapping": {
    "ALLOW": 0,
    "BLOCK": 1
  },
  "weights": [
    -0.16600008353188223,
    -0.4498916028981819,
    -1.0490674017191872,
    1.7522070113602233,
    0.7171238641943923,
    0.9432796918200446,
    0.7311154799459559,
    0.11306067294434671,
    -0.09827368170730687,
    -0.33733849837055874,
    -0.6713470045731715,
    -2.526493261182192,
    -2.783782627739166,
    0.34194332533487243,
    0.75280862629534,
    0.9479839708409021,
    -3.110791835152131,
    1.1788381151560325,
    0.7210963052864449,
    -2.517545388359535,
    0.7071912433538691,
    3.8348675670614756,
    -0.6248569876159077,
    -0.5250649263870931,
    -0.1624465096312661,
    0.6402428186947798,
    -2.597008709081133,
    -1.0451524949313244,
    1.4291579091872113,
    1.5705610880498158,
    -0.3168095959441222,
    -1.149280688769671,
    0.8435764513145365,
    2.023407579978186,
    3.3098289099182914,
    0.020034376422114065,
    0.47105874644312995,
    0.9220776524717816,
    0.8697640222178246,
    0.15693142487870004,
    -0.7517584113018236,
    0.7941871427650617,
    -0.7127371701669647,
    0.30203613071073815,
    0.24579676532991115,
    0.2405161453395569,
    -1.6754877936019172,
    -1.3407241957229206,
    -0.1787275332016277,
    2.0021733439471445,
    1.348448969054287,
    1.6639816711782722,
    1.2080759378720443,
    -0.12670127136597586,
    -0.06778928344597883,
    2.066107531392039,
    -0.29131207338493936,
    1.9265554941218428,
    -1.1458073569700709,
    -0.10835406762652805,
    -2.5725698629648583,
    -1.5336068542684966,
    -0.4584606442249034,
    -1.788132329047323,
    -2.781198845297455,
    0.6089986578894832,
    0.22032034074749096,
    2.183773545028105,
    -1.275135895861867,
    -1.3652883104000113,
    -1.3084563523603574,
    3.985887461321496,
    -1.1381875645074313,
    -1.2818887983404301,
    0.3475963038319064,
    -0.17657130563415196,
    0.14363691454935376,
    2.0567742961283884,
    0.14603208802524653,
    -0.9798893062759351,
    -1.1603727923165665,
    -2.3245329274709716,
    -0.36663929576670895,
    2.0442013321516956,
    -2.475108873923674,
    1.519524613787442,
    -1.1307630422828037,
    2.610106086025218,
    -0.7817945176840688,
    0.4672075741019044,
    -2.7278510860617646,
    1.3897482336921314,
    -2.2911698787796757,
    0.6604747470709762,
    -2.749821876164498,
    -0.5963408551930728,
    0.8713389224195615,
    1.4505960263427442,
    0.26430118466847347,
    0.10363546500716501,
    -2.1404075731349432,
    -0.057780054750287156,
    2.16294421584513,
    1.4519371914047297,
    -2.1575406750324793,
    1.0421475505778297,
    -0.549188233073524,
    0.4798938003945926,
    -0.722242007728232,
    0.5608881201582203,
    0.3865178437366548,
    -2.245279742858318,
    -0.10894953107279282,
    -1.5665269282250962,
    3.891819305676654,
    -3.0556738165710193,
    -1.3649199075646727,
    -0.07418815621049281,
    0.35520674641773453,
    -0.9873513275149365,
    0.632197602221817,
    -0.2408722351563576,
    -1.783968074658557,
    3.0917401890658542,
    0.44788250225108023,
    0.10983824806018254,
    2.4386346986345924,
    3.331524801476941e-32,
    -0.6262936114496791,
    -0.1509059326998499,
    1.7524767132682533,
    -0.064055972671008,
    -0.8213795971545128,
    0.22678537791142808,
    2.2445826935913384,
    0.029381181440538532,
    -0.34444431320992464,
    -0.37015433741809706,
    -2.7380619685190517,
    -0.5565333276965527,
    0.42221438001648753,
    -1.5701130067126516,
    -0.6154467300435444,
    -1.0829230815156126,
    -0.47392677703891506,
    -1.065624299646903,
    0.48606800690855423,
    -0.9911554040440596,
    0.49408693273662835,
    2.113612663738849,
    -0.2714840228856979,
    0.8796581673022218,
    2.482707285124423,
    0.7326469007909716,
    2.9181830801578,
    -0.04060971590338598,
    -0.7965350179680833,
    0.0653446475176769,
    1.8958172090511,
    -0.4507920678119236,
    -1.3251007610198688,
    -0.29326750593121503,
    1.8702313767726848,
    -1.3624272745137993,
    2.0910665796453474,
    1.60951455152666,
    -0.3673772738184341,
    1.0949660282400018,
    2.720029611201091,
    -0.2263468401588194,
    0.2789754907506447,
    -1.0425851746625214,
    -2.988801947675072,
    -4.352172789575069,
    -1.1401239758569364,
    1.1722528877180325,
    3.369642769100773,
    -1.1981962888896986,
    2.0720494658183872,
    2.0163148898523158,
    -5.35861307074285,
    -4.022189010544162,
    1.001022892725854,
    -0.8717986965163153,
    -1.3286872318108525,
    2.678455767836092,
    0.00940309057220836,
    -0.8729470002334659,
    1.833828635950469,
    1.3733141982299484,
    2.282325528163005,
    -0.8771539007300534,
    1.9622190907697952,
    -0.4185712207661853,
    1.4826951853902584,
    -0.2678610001567413,
    0.9121146745638947,
    -1.6836098363878798,
    -0.46455879384364457,
    -2.63939385234926,
    -0.7517183295483981,
    -1.8027708389976353,
    0.9651288587360192,
    -0.004132010848344072,
    0.9557256972523313,
    -2.32444084883567,
    -0.7904726968228116,
    3.610928174971159,
    1.0227497177791967,
    -0.10331760830362087,
    -1.8360393323464046,
    0.6683521872904898,
    1.8608025481805082,
    -2.0662423343907155,
    -1.409710898602969,
    2.9039503923656973,
    0.6805081883208256,
    -2.7197667282160616,
    -0.17171667334962776,
    -1.258183883641824,
    -2.6017268957302013,
    -0.5290969449785701,
    -1.82237833448538,
    -4.078899769595298e-32,
    2.986611065284805,
    -1.489348289571134,
    -0.6229966085908198,
    -1.5746448881948976,
    0.18510310736626326,
    1.13524963336521,
    0.7905721997896908,
    0.1432031065415483,
    -3.134991765943957,
    1.8667649348981894,
    2.259724993095971,
    -0.14842329411718655,
    -1.7476068563928526,
    0.8730149809167691,
    0.4290368818304308,
    2.46217471881876,
    -2.4102122796896546,
    1.5992174420348468,
    -2.486683561695278,
    1.8361387429534821,
    -2.956458776334554,
    -0.8191125061426803,
    1.7080427439083206,
    1.4706339340338153,
    0.28100235639608945,
    -3.201607379844808,
    3.1409050791645106,
    3.268661628721112,
    2.4674543373081406,
    -1.1254415919885694,
    1.1352826371238007,
    -3.799903932328871,
    -3.668619636614327,
    -1.1973286827512037,
    -1.043115086907217,
    -2.718636449061631,
    1.4011058600807424,
    1.886037524235116,
    -0.7926801251359137,
    0.7886474143718978,
    -1.5523628044689046,
    -2.30099549606908,
    -2.379965392148692,
    2.256854948832472,
    -0.12447632752045105,
    1.2780981001970333,
    0.542198205734239,
    1.9878269925124084,
    -1.3125951935054785,
    -1.066161193372948,
    1.4516774893773403,
    -1.4676906482963472,
    -0.4193359254808201,
    -1.8879797288713795,
    2.7199008025742746,
    -2.0613795858783264,
    2.044208969004417,
    0.01127088329747641,
    -0.2962602390401097,
    -3.350954104176603,
    -0.26171304951530905,
    -1.979175565920403,
    -1.6296089484958185,
    -1.503879315923348,
    0.1320586869892258,
    0.5188572691248241,
    0.7579819648968446,
    -0.719918203637666,
    -2.9404719310317717,
    -1.3271226014589355,
    1.4536994805737693,
    0.6538646813918293,
    -1.0209955333186946,
    0.19546517857722565,
    -0.553865588409573,
    0.7065260092835816,
    -2.287169202664573,
    -0.12278022868125839,
    -1.2107493676096048,
    0.37296378930816637,
    -0.17512193726304226,
    1.6798604205894183,
    -1.9981684541177516,
    1.3593938892884379,
    0.8172133142789857,
    -2.647117410248287,
    0.9868803907449877,
    2.3645405319186197,
    0.02413236000962616,
    -1.7779694680437337,
    2.042008061288506,
    -0.7764582639463112,
    -1.0077093437264264,
    0.5485930821704454,
    0.486622112487802,
    3.5527600216349847e-07,
    -0.6394019831815967,
    1.1598364957807534,
    0.902386828507374,
    -1.1640667748192493,
    2.5765620531526996,
    1.6082461009331817,
    0.7876370943879806,
    0.011952336195445407,
    1.7180452784280336,
    0.21466746850536897,
    -0.25129435996569477,
    -2.265259335990749,
    1.4133909621789256,
    0.6229337066995702,
    0.06306902801406865,
    1.427239343831513,
    2.069207554268671,
    -1.6983247467714646,
    3.597343982597388,
    -0.4586403606088394,
    0.26895298701995657,
    -1.2918187830939523,
    -0.8700067847779567,
    -1.1005090999500395,
    1.9850972834801628,
    -0.709176074225923,
    -3.057485978593074,
    -3.266863108461911,
    0.783397344927481,
    -2.9492888053790653,
    3.351645623982658,
    1.2390511653415937,
    1.2206919668166367,
    -2.6190685652891563,
    2.7478934709740206,
    -1.3524117634495882,
    1.433967363162219,
    0.18241942754112675,
    -2.0522904059602274,
    -2.583401356887145,
    -0.9257711672331298,
    1.9475362437065393,
    -0.09740693350119362,
    -0.15108652478112608,
    0.28296819974432125,
    2.8303433573513743,
    1.8859174519263726,
    -0.6541509445911415,
    -0.1260136341380961,
    -1.9773504334624088,
    0.46020296073455924,
    -1.5540125139869592,
    1.1784306789529733,
    -0.6734126014408244,
    -3.3734934704019137,
    2.1221195220603652,
    1.093694902521454,
    -0.6003305540122669,
    -0.6264133713156222,
    -0.16530761314867307,
    1.3202785434058448,
    3.895939364298858,
    -1.9967357391869403,
    0.796840377663369
  ],
  "intercept": -0.5924429111643286,
  "threshold": 0.4199950085320943,
  "score_definition": "probability of BLOCK",
  "decision_rule": "predict BLOCK iff block_probability >= threshold",
  "threshold_selection_split": "val"
}
